Language model created by QuickLM on Wed May  9 15:44:51 EDT 2018
Copyright (c) 1996-2010 Carnegie Mellon University and Alexander I. Rudnicky

The model is in standard ARPA format, designed by Doug Paul while he was at MITRE.

The code that was used to produce this language model is available in Open Source.
Please visit http://www.speech.cs.cmu.edu/tools/ for more information

The (fixed) discount mass is 0.5. The backoffs are computed using the ratio method.
This model based on a corpus of 5 sentences and 7 words

\data\
ngram 1=7
ngram 2=10
ngram 3=5

\1-grams:
-0.7782 </s> -0.3010
-0.7782 <s> -0.2218
-1.4771 next -0.2218
-1.4771 pause -0.2218
-1.4771 play -0.2218
-1.4771 previous -0.2218
-1.4771 stop -0.2218

\2-grams:
-1.0000 <s> next 0.0000
-1.0000 <s> pause 0.0000
-1.0000 <s> play 0.0000
-1.0000 <s> previous 0.0000
-1.0000 <s> stop 0.0000
-0.3010 next </s> -0.3010
-0.3010 pause </s> -0.3010
-0.3010 play </s> -0.3010
-0.3010 previous </s> -0.3010
-0.3010 stop </s> -0.3010

\3-grams:
-0.3010 <s> next </s>
-0.3010 <s> pause </s>
-0.3010 <s> play </s>
-0.3010 <s> previous </s>
-0.3010 <s> stop </s>

\end\
