Language model created by QuickLM on Wed May  9 14:13:03 EDT 2018
Copyright (c) 1996-2010 Carnegie Mellon University and Alexander I. Rudnicky

The model is in standard ARPA format, designed by Doug Paul while he was at MITRE.

The code that was used to produce this language model is available in Open Source.
Please visit http://www.speech.cs.cmu.edu/tools/ for more information

The (fixed) discount mass is 0.5. The backoffs are computed using the ratio method.
This model based on a corpus of 5 sentences and 9 words

\data\
ngram 1=9
ngram 2=12
ngram 3=11

\1-grams:
-0.9445 </s> -0.3010
-0.9445 <s> -0.2486
-1.3424 BROWSER -0.2486
-1.3424 CLOSE -0.2596
-1.3424 FILE -0.2808
-1.6435 HELLO -0.2910
-1.3424 MANAGER -0.2486
-1.3424 OPEN -0.2596
-1.6435 WORLD -0.2486

\2-grams:
-0.6990 <s> CLOSE 0.0000
-1.0000 <s> HELLO 0.0000
-0.6990 <s> OPEN 0.0000
-0.3010 BROWSER </s> -0.3010
-0.6021 CLOSE BROWSER 0.0000
-0.6021 CLOSE FILE 0.0000
-0.3010 FILE MANAGER 0.0000
-0.3010 HELLO WORLD 0.0000
-0.3010 MANAGER </s> -0.3010
-0.6021 OPEN BROWSER 0.0000
-0.6021 OPEN FILE 0.0000
-0.3010 WORLD </s> -0.3010

\3-grams:
-0.6021 <s> CLOSE BROWSER
-0.6021 <s> CLOSE FILE
-0.3010 <s> HELLO WORLD
-0.6021 <s> OPEN BROWSER
-0.6021 <s> OPEN FILE
-0.3010 CLOSE BROWSER </s>
-0.3010 CLOSE FILE MANAGER
-0.3010 FILE MANAGER </s>
-0.3010 HELLO WORLD </s>
-0.3010 OPEN BROWSER </s>
-0.3010 OPEN FILE MANAGER

\end\
